digraph Tree {
node [shape=box] ;
0 [label="title <= 0.5\ngini = 0.492\nsamples = 16\nvalue = [7, 9]\nclass = gaji>10"] ;
1 [label="kantor <= 0.5\ngini = 0.375\nsamples = 8\nvalue = [6, 2]\nclass = gaji<10"] ;
0 -> 1 [labeldistance=2.5, labelangle=45, headlabel="True"] ;
2 [label="gini = 0.0\nsamples = 2\nvalue = [0, 2]\nclass = gaji>10"] ;
1 -> 2 ;
3 [label="gini = 0.0\nsamples = 6\nvalue = [6, 0]\nclass = gaji<10"] ;
1 -> 3 ;
4 [label="kantor <= 0.5\ngini = 0.219\nsamples = 8\nvalue = [1, 7]\nclass = gaji>10"] ;
0 -> 4 [labeldistance=2.5, labelangle=-45, headlabel="False"] ;
5 [label="gini = 0.0\nsamples = 3\nvalue = [0, 3]\nclass = gaji>10"] ;
4 -> 5 ;
6 [label="kantor <= 1.5\ngini = 0.32\nsamples = 5\nvalue = [1, 4]\nclass = gaji>10"] ;
4 -> 6 ;
7 [label="job <= 0.5\ngini = 0.5\nsamples = 2\nvalue = [1, 1]\nclass = gaji<10"] ;
6 -> 7 ;
8 [label="gini = 0.0\nsamples = 1\nvalue = [0, 1]\nclass = gaji>10"] ;
7 -> 8 ;
9 [label="gini = 0.0\nsamples = 1\nvalue = [1, 0]\nclass = gaji<10"] ;
7 -> 9 ;
10 [label="gini = 0.0\nsamples = 3\nvalue = [0, 3]\nclass = gaji>10"] ;
6 -> 10 ;
}